<?xml version="1.0"?>
<opencv_storage>
<!-- Created using Computer Vision System Toolbox(tm) for MATLAB(R) -->
<!-- Version 9.1.0.441655 (R2016b) -->
<!-- Compatible with OpenCV 2.4 -->
<cascade>
  <stageType>BOOST</stageType>
  <featureType>HAAR</featureType>
  <height>48</height>
  <width>32</width>
  <stageParams>
    <boostType>GAB</boostType>
    <minHitRate>9.9500000476837158e-01</minHitRate>
    <maxFalseAlarm>5.0000000000000000e-01</maxFalseAlarm>
    <weightTrimRate>9.4999999999999996e-01</weightTrimRate>
    <maxDepth>1</maxDepth>
    <maxWeakCount>100</maxWeakCount></stageParams>
  <featureParams>
    <maxCatCount>0</maxCatCount>
    <featSize>1</featSize>
    <mode>BASIC</mode></featureParams>
  <stageNum>7</stageNum>
  <stages>
    <!-- stage 0 -->
    <_>
      <maxWeakCount>4</maxWeakCount>
      <stageThreshold>-2.2966837882995605e+00</stageThreshold>
      <weakClassifiers>
        <_>
          <internalNodes>
            0 -1 24 1.9181337207555771e-02</internalNodes>
          <leafValues>
            -9.7482424974441528e-01 5.5329948663711548e-01</leafValues></_>
        <_>
          <internalNodes>
            0 -1 17 1.7489251494407654e-01</internalNodes>
          <leafValues>
            -9.7379511594772339e-01 5.9499549865722656e-01</leafValues></_>
        <_>
          <internalNodes>
            0 -1 18 -2.0158880949020386e-01</internalNodes>
          <leafValues>
            5.3008043766021729e-01 -9.3865799903869629e-01</leafValues></_>
        <_>
          <internalNodes>
            0 -1 8 -1.5684228390455246e-02</internalNodes>
          <leafValues>
            7.3425441980361938e-01 -8.7814474105834961e-01</leafValues></_></weakClassifiers></_>
    <!-- stage 1 -->
    <_>
      <maxWeakCount>3</maxWeakCount>
      <stageThreshold>-1.5831310749053955e+00</stageThreshold>
      <weakClassifiers>
        <_>
          <internalNodes>
            0 -1 4 3.0026078224182129e-02</internalNodes>
          <leafValues>
            -9.5239639282226563e-01 4.0895521640777588e-01</leafValues></_>
        <_>
          <internalNodes>
            0 -1 21 -4.9942538142204285e-02</internalNodes>
          <leafValues>
            3.1791359186172485e-01 -9.2089283466339111e-01</leafValues></_>
        <_>
          <internalNodes>
            0 -1 13 -1.2614774703979492e-01</internalNodes>
          <leafValues>
            4.2148733139038086e-01 -9.4864833354949951e-01</leafValues></_></weakClassifiers></_>
    <!-- stage 2 -->
    <_>
      <maxWeakCount>4</maxWeakCount>
      <stageThreshold>-2.3621649742126465e+00</stageThreshold>
      <weakClassifiers>
        <_>
          <internalNodes>
            0 -1 16 -7.9450681805610657e-02</internalNodes>
          <leafValues>
            -2.3056994378566742e-01 -9.7002959251403809e-01</leafValues></_>
        <_>
          <internalNodes>
            0 -1 11 2.0491638779640198e-01</internalNodes>
          <leafValues>
            -9.5689290761947632e-01 1.6520020365715027e-01</leafValues></_>
        <_>
          <internalNodes>
            0 -1 6 -1.8147936463356018e-01</internalNodes>
          <leafValues>
            4.1215166449546814e-01 -9.0262377262115479e-01</leafValues></_>
        <_>
          <internalNodes>
            0 -1 3 -5.1945198327302933e-02</internalNodes>
          <leafValues>
            4.6738129854202271e-01 -7.6697969436645508e-01</leafValues></_></weakClassifiers></_>
    <!-- stage 3 -->
    <_>
      <maxWeakCount>4</maxWeakCount>
      <stageThreshold>-2.4412288665771484e+00</stageThreshold>
      <weakClassifiers>
        <_>
          <internalNodes>
            0 -1 12 4.6227991580963135e-02</internalNodes>
          <leafValues>
            -9.6537089347839355e-01 -9.3548387289047241e-02</leafValues></_>
        <_>
          <internalNodes>
            0 -1 10 2.4511194229125977e-01</internalNodes>
          <leafValues>
            -9.4470977783203125e-01 1.7197743058204651e-01</leafValues></_>
        <_>
          <internalNodes>
            0 -1 26 1.9135106354951859e-02</internalNodes>
          <leafValues>
            -9.0098965167999268e-01 2.5016474723815918e-01</leafValues></_>
        <_>
          <internalNodes>
            0 -1 2 1.2240646407008171e-02</internalNodes>
          <leafValues>
            -7.8131288290023804e-01 3.9975106716156006e-01</leafValues></_></weakClassifiers></_>
    <!-- stage 4 -->
    <_>
      <maxWeakCount>3</maxWeakCount>
      <stageThreshold>-2.1123151779174805e+00</stageThreshold>
      <weakClassifiers>
        <_>
          <internalNodes>
            0 -1 14 -2.0042175054550171e-01</internalNodes>
          <leafValues>
            -3.2962137460708618e-01 -9.7078210115432739e-01</leafValues></_>
        <_>
          <internalNodes>
            0 -1 9 2.7713024616241455e-01</internalNodes>
          <leafValues>
            -9.1264921426773071e-01 8.2711517810821533e-02</leafValues></_>
        <_>
          <internalNodes>
            0 -1 5 -6.7748412489891052e-02</internalNodes>
          <leafValues>
            2.4310287833213806e-01 -8.7004464864730835e-01</leafValues></_></weakClassifiers></_>
    <!-- stage 5 -->
    <_>
      <maxWeakCount>5</maxWeakCount>
      <stageThreshold>-2.1976220607757568e+00</stageThreshold>
      <weakClassifiers>
        <_>
          <internalNodes>
            0 -1 25 1.4371248893439770e-02</internalNodes>
          <leafValues>
            -9.1777825355529785e-01 -3.2258063554763794e-02</leafValues></_>
        <_>
          <internalNodes>
            0 -1 19 -2.0924544334411621e-01</internalNodes>
          <leafValues>
            1.2330302596092224e-01 -8.8251143693923950e-01</leafValues></_>
        <_>
          <internalNodes>
            0 -1 15 -1.1904805153608322e-01</internalNodes>
          <leafValues>
            2.9789197444915771e-01 -8.2761853933334351e-01</leafValues></_>
        <_>
          <internalNodes>
            0 -1 20 1.6109675634652376e-03</internalNodes>
          <leafValues>
            -8.4974521398544312e-01 3.4589776396751404e-01</leafValues></_>
        <_>
          <internalNodes>
            0 -1 1 -2.4284994602203369e-01</internalNodes>
          <leafValues>
            2.7421700954437256e-01 -9.5333403348922729e-01</leafValues></_></weakClassifiers></_>
    <!-- stage 6 -->
    <_>
      <maxWeakCount>5</maxWeakCount>
      <stageThreshold>-1.6367664337158203e+00</stageThreshold>
      <weakClassifiers>
        <_>
          <internalNodes>
            0 -1 7 3.0569605529308319e-02</internalNodes>
          <leafValues>
            -8.7894511222839355e-01 2.9255318641662598e-01</leafValues></_>
        <_>
          <internalNodes>
            0 -1 23 5.3229923360049725e-03</internalNodes>
          <leafValues>
            -7.5864130258560181e-01 2.6200109720230103e-01</leafValues></_>
        <_>
          <internalNodes>
            0 -1 22 -4.0643863379955292e-02</internalNodes>
          <leafValues>
            3.6359333992004395e-01 -7.3935669660568237e-01</leafValues></_>
        <_>
          <internalNodes>
            0 -1 27 -7.6774144545197487e-03</internalNodes>
          <leafValues>
            3.1386950612068176e-01 -7.6956564188003540e-01</leafValues></_>
        <_>
          <internalNodes>
            0 -1 0 -1.4805737882852554e-03</internalNodes>
          <leafValues>
            4.9036365747451782e-01 -5.9433525800704956e-01</leafValues></_></weakClassifiers></_></stages>
  <features>
    <_>
      <rects>
        <_>
          0 0 22 2 -1.</_>
        <_>
          0 0 11 1 2.</_>
        <_>
          11 1 11 1 2.</_></rects>
      <tilted>0</tilted></_>
    <_>
      <rects>
        <_>
          0 0 22 45 -1.</_>
        <_>
          11 0 11 45 2.</_></rects>
      <tilted>0</tilted></_>
    <_>
      <rects>
        <_>
          0 0 14 6 -1.</_>
        <_>
          0 3 14 3 2.</_></rects>
      <tilted>0</tilted></_>
    <_>
      <rects>
        <_>
          0 1 16 8 -1.</_>
        <_>
          8 1 8 8 2.</_></rects>
      <tilted>0</tilted></_>
    <_>
      <rects>
        <_>
          0 2 12 10 -1.</_>
        <_>
          0 2 6 5 2.</_>
        <_>
          6 7 6 5 2.</_></rects>
      <tilted>0</tilted></_>
    <_>
      <rects>
        <_>
          0 7 26 5 -1.</_>
        <_>
          13 7 13 5 2.</_></rects>
      <tilted>0</tilted></_>
    <_>
      <rects>
        <_>
          1 25 30 23 -1.</_>
        <_>
          11 25 10 23 3.</_></rects>
      <tilted>0</tilted></_>
    <_>
      <rects>
        <_>
          2 4 12 10 -1.</_>
        <_>
          2 4 6 5 2.</_>
        <_>
          8 9 6 5 2.</_></rects>
      <tilted>0</tilted></_>
    <_>
      <rects>
        <_>
          3 0 24 6 -1.</_>
        <_>
          3 0 12 3 2.</_>
        <_>
          15 3 12 3 2.</_></rects>
      <tilted>0</tilted></_>
    <_>
      <rects>
        <_>
          3 8 28 40 -1.</_>
        <_>
          3 8 14 20 2.</_>
        <_>
          17 28 14 20 2.</_></rects>
      <tilted>0</tilted></_>
    <_>
      <rects>
        <_>
          3 10 28 38 -1.</_>
        <_>
          3 10 14 19 2.</_>
        <_>
          17 29 14 19 2.</_></rects>
      <tilted>0</tilted></_>
    <_>
      <rects>
        <_>
          4 10 24 38 -1.</_>
        <_>
          4 10 12 19 2.</_>
        <_>
          16 29 12 19 2.</_></rects>
      <tilted>0</tilted></_>
    <_>
      <rects>
        <_>
          5 0 7 12 -1.</_>
        <_>
          5 6 7 6 2.</_></rects>
      <tilted>0</tilted></_>
    <_>
      <rects>
        <_>
          5 3 14 32 -1.</_>
        <_>
          12 3 7 32 2.</_></rects>
      <tilted>0</tilted></_>
    <_>
      <rects>
        <_>
          5 7 20 18 -1.</_>
        <_>
          15 7 10 18 2.</_></rects>
      <tilted>0</tilted></_>
    <_>
      <rects>
        <_>
          5 8 7 40 -1.</_>
        <_>
          5 28 7 20 2.</_></rects>
      <tilted>0</tilted></_>
    <_>
      <rects>
        <_>
          6 0 22 14 -1.</_>
        <_>
          6 0 11 7 2.</_>
        <_>
          17 7 11 7 2.</_></rects>
      <tilted>0</tilted></_>
    <_>
      <rects>
        <_>
          6 8 20 40 -1.</_>
        <_>
          6 8 10 20 2.</_>
        <_>
          16 28 10 20 2.</_></rects>
      <tilted>0</tilted></_>
    <_>
      <rects>
        <_>
          7 2 24 32 -1.</_>
        <_>
          15 2 8 32 3.</_></rects>
      <tilted>0</tilted></_>
    <_>
      <rects>
        <_>
          8 9 24 24 -1.</_>
        <_>
          16 9 8 24 3.</_></rects>
      <tilted>0</tilted></_>
    <_>
      <rects>
        <_>
          9 0 22 1 -1.</_>
        <_>
          20 0 11 1 2.</_></rects>
      <tilted>0</tilted></_>
    <_>
      <rects>
        <_>
          10 11 4 26 -1.</_>
        <_>
          10 24 4 13 2.</_></rects>
      <tilted>0</tilted></_>
    <_>
      <rects>
        <_>
          10 17 11 27 -1.</_>
        <_>
          10 26 11 9 3.</_></rects>
      <tilted>0</tilted></_>
    <_>
      <rects>
        <_>
          10 47 18 1 -1.</_>
        <_>
          19 47 9 1 2.</_></rects>
      <tilted>0</tilted></_>
    <_>
      <rects>
        <_>
          12 0 1 33 -1.</_>
        <_>
          12 11 1 11 3.</_></rects>
      <tilted>0</tilted></_>
    <_>
      <rects>
        <_>
          12 6 3 8 -1.</_>
        <_>
          12 10 3 4 2.</_></rects>
      <tilted>0</tilted></_>
    <_>
      <rects>
        <_>
          12 14 20 12 -1.</_>
        <_>
          12 14 10 6 2.</_>
        <_>
          22 20 10 6 2.</_></rects>
      <tilted>0</tilted></_>
    <_>
      <rects>
        <_>
          22 25 10 22 -1.</_>
        <_>
          22 25 5 11 2.</_>
        <_>
          27 36 5 11 2.</_></rects>
      <tilted>0</tilted></_></features></cascade>
</opencv_storage>
